function [y1] = bodyFat75(x1)
%bodyFat75 neural network simulation function.
%
% Auto-generated by MATLAB, 30-Nov-2020 16:02:34.
%
% [y1] = myNeuralNetworkFunction(x1) takes these arguments:
%   x = 13xQ matrix, input #1
% and returns:
%   y = 1xQ matrix, output #1
% where Q is the number of samples.

%#ok<*RPMT0>

% ===== NEURAL NETWORK CONSTANTS =====

% Input 1
x1_step1.xoffset = [22;118.5;29.5;31.1;79.3;69.4;85;47.2;33;19.1;24.8;21;15.8];
x1_step1.gain = [0.0338983050847458;0.00817494379726139;0.0414507772020725;0.099502487562189;0.0351493848857645;0.0254129606099111;0.0318979266347687;0.0498753117206983;0.124223602484472;0.135135135135135;0.099009900990099;0.143884892086331;0.357142857142857];
x1_step1.ymin = -1;

% Layer 1
b1 = [-2.3734050359445313383;-2.2360397221570185167;-2.3126652898737107833;1.0886142271730432363;0.70411026249477104422;0.98246175911123301283;1.7793895192065922739;1.3252917366714251912;-2.0015836451993660461;0.70639002300586517524;1.986904602168784395;1.0756297784421793295;1.6445129396153752577;-1.7136733762420155447;0.51788130123557873929;0.69810257454844260039;1.5385608284308278648;1.4692986095377869038;0.81303653022076494139;-0.098379595019446985926;-0.66023691920484917084;-0.91191599146903323803;0.28694460799640103543;0.10330923376095620114;2.0926144277956915118;-0.53067176219482559141;0.7943578912180931928;1.9130305548846717745;-1.2690514722697499028;-1.1276726425104905971;-1.0137617497595685645;-2.0001918904905369168;-1.5291448916765144617;-1.2964053037498906029;0.79800475941113835354;-0.33975983698658218657;-0.20612527613422482187;1.1382484789821456506;-0.50031305372194945225;0.69625392154921728061;-0.83881596906929367652;-0.74453908872226082227;-0.26446935333107313149;-0.40178505156991539682;0.73717878956154303527;-0.86889724339909446549;-0.66748188940278097014;-0.98791480412085697083;0.1611675524243291191;1.340508267037648249;1.704927158984352431;1.0569036690526485422;-0.66384922308660898604;-0.91582079589128673192;1.4055326963444572108;0.69003263870514430778;1.6722852364213169896;0.29436636911117747273;1.2081075779575420892;2.2700149833856531068;0.13366459061750132764;-2.0805990353813155203;1.5362390747345906483;-0.92994128162244749092;-2.0530385782032940511;1.2721904375593811043;1.8112286784271693918;-1.4283497151114350476;1.6872078297453922957;1.6924484518806994782;1.9232107093116646013;1.3170816288056144128;-1.8118992553242598831;2.0871546627160393328;2.1516129104669250438];
IW1_1 = [-0.13813660571475125383 0.70699500180638474855 0.62166184878167751737 -0.52336586925868100462 1.0678146861305102266 0.3784550270445349307 0.15559816242677421139 0.12404168848770308342 0.98358257889703593069 0.43304509524302781109 1.2106704500279614756 0.34696715153396079367 0.2321990908220827321;0.2185012099404948227 -0.16243591790229688909 0.96898071255634399268 -0.63668087025765196518 0.34297274807225702764 0.61551864402922507047 -0.31828539342469297502 -0.59147478485438187423 -1.1026264850797267147 -0.25236685683831427962 0.29105838552228679994 0.622882612787167389 0.19515845157482528127;0.79911030419851558637 0.3435676586517812936 -1.0607774498440378785 -0.1233890829527704569 0.35555954372276848963 0.17822617337717766572 0.73865439499328988671 0.59933504341210952493 0.60484499829221227696 -0.49750446003785081528 -0.44595924509931561541 -0.4291151303371276704 -0.064282257677633097837;1.258217368052726215 1.2771580505635005132 -1.7896073454666945324 1.8541991784977764901 -0.62246116386584782187 0.54531046211956302194 0.11835047707139099982 -1.5374165034316069622 1.4968020574974623127 2.2785912618658414885 -0.1811221447280816077 -0.46967020865177105948 -0.62975866940536928684;0.53768524550721952249 -0.28086213541809973426 0.93007915754283854159 0.64516166647425587932 0.51163290675651074135 -0.13873118958048141769 1.8717686882258652847 0.56618670735342069289 -0.69491177505015788718 0.40226019652335220922 -0.42017746801326549821 -0.96782817181918379124 -1.9535945628130571006;-0.10028028354470024108 -0.43026188442039992044 0.50041734906981794051 0.13318336743396774757 -0.82087110546549213463 2.1559663591930862125 -1.3642066493448794517 0.21438302408762985318 -0.86720072860215569044 0.36027632479555965483 -0.11929173063430595358 -0.20844924348865387365 1.0930437661315974829;-0.83297955219300867657 -0.80569067888764667185 -0.94669080072112032909 0.82657949275306474846 0.4594967883606858039 -0.55309422462986335134 -0.14615116153178131508 1.213121965274442271 -0.92581791531968138376 -0.84915352269800958851 0.78962971881416432751 0.76076016351427711015 1.0046291042694863727;-0.16357990601752719906 -0.70133409613690289586 -0.79167130527662699091 0.33248678558858862919 -0.20589635684832890972 0.0059139200312741425913 0.43943017102209647184 0.69134722316395225139 -1.53877055428081011 -0.43355183714526696059 -0.28747418195315233014 -0.38915514508880433286 -0.68181988715242991539;0.51533198269848679018 0.29470185137738946768 -1.5052410823189739109 -0.18338304387137002727 0.33222785564351670073 -0.080586957774987311165 0.79416965131126560085 0.92455034566436422594 0.64538392652545961692 0.16226304369850544362 -0.46977304483305959426 -0.39409166380701587951 -0.17096552980734242011;-0.25820717000426357535 -0.16736987256649102362 -1.5512959989978296615 -0.20030316706491965717 1.1924947633087343846 -0.96009445001669679876 -0.72155461155191780165 -0.47953736274526881367 0.34350881612089051442 -0.3868317389320639621 0.36472099422818093917 -0.067079027674517566204 1.5339451218700503876;-0.24204331715653248924 -1.1808088551113917752 0.15246098614430061979 0.45537725093550501798 -0.06134343827537256516 0.19203644582404552632 -0.66289751961960075022 -0.56267045262907400272 -0.35528285984782220774 0.020520610393677723993 -0.54902115950054275473 0.43832401631832595967 -1.092324831543545649;-1.2526652535011046918 -0.11114466231952381536 1.214967781549781467 -0.1563503369184708891 0.21413672361856536663 0.50946797661668208335 -0.055606720430469831762 0.34597238704678184851 0.024287191634150981367 0.75435726620014731392 -0.061084850183056225992 -1.0708299572270103539 1.1473582692469221911;-0.40802383382711515658 -0.080085690646431298423 0.23744048939741518867 -1.1653344424023865944 -1.1885465065501619186 -0.65549111023779660368 1.2970811436823341811 -0.44430600626355415406 0.1285420606687348033 -0.15790555281781232244 0.25859736292169632765 -0.54858335137721581098 -0.43457371490322804775;0.53975223536945227121 -0.15561409131827555474 -0.77566336540187730275 0.22850473564919371317 -0.64561470557717670626 0.84818802776858981396 0.0058118337248270774548 0.70485831184695257878 -0.1876004478147937915 -0.031419405416743498294 0.67872666581905194416 0.66978235010459152843 0.61150032435999868152;-0.90735725193407534839 -1.5801448926918741922 1.741509413784474658 1.6068935638125407817 -0.059791865318661548134 0.76136990115511782307 0.99757172841575358913 1.1567027572076400421 -1.6460528283517708026 0.1983738630430712524 0.16834965040635516131 1.1717191961819113377 -1.0451040553697537039;-1.1620848070867617619 -1.0997646724368224103 -0.14478435763660907343 -0.12600041749135473812 0.97198634259497740384 0.79227467423906805521 0.25005190338788052529 -1.0777171455335663453 -0.037871786429752571368 0.20278293607745340177 0.20593318425103757097 -0.36395209688270913073 1.8374008483052604035;-0.26908935720622650933 0.69801911017580708929 -0.3850342943045804156 -1.1604635667453984116 -0.52897217630981396841 0.27361423358125347427 0.54452955554818949224 -0.34648580198262418639 0.51317953581159814203 -0.5101323287016872321 -0.21130048865308304062 -0.51997497999184771889 -0.35281190290181818625;-0.3527578004201329942 -0.75022329645593199832 -0.74836874452178903105 -0.67247995233733337539 -0.24934607850176321309 -0.14379938350136192704 0.74342000713205136364 -0.3802859848885152827 -0.47916367634757711658 -0.58317276388912797636 0.45507811088968219693 0.68985764856786713217 -0.5790094674084313997;0.019002915850788566765 -0.43133346733879684987 -0.22650073366580175671 -0.53488588702145978271 0.41402453070489869669 -1.3782502152448692367 -0.90027681349174504266 0.16843693986747787505 -1.2848041320981213875 0.17785373714762237052 -0.24534884542568097254 -0.65992807650404372577 1.0832886202961746758;-0.0074746085687028944455 0.29103904052556045512 1.4854893519864913465 -1.1178914273810511837 0.035928728339545468184 -0.35106583339649233277 -0.57398800028267116247 0.73066929295540317124 -0.31049156442619940677 1.0145945404923630839 -0.2645596282067413374 0.3572660448530766697 -0.88885890239572429294;0.83748980852020904475 -0.11256334568605468049 -0.28030896964700785512 -0.626238561995678511 0.91643728448156980271 0.58716506339618079746 -1.3713096623529552609 -0.82744851050334844444 0.44479216668825327652 -0.13456628161950856537 -0.011904274160258361548 1.0436086931634855901 -0.82684443854879252633;0.50804022406020821201 -0.35469330226820222629 0.066749735164495380135 -0.18004718182062998122 -0.44868416577009828661 0.15461415594079572222 0.43532785304588983433 1.0714632626877811372 0.9878041413189536657 0.74524572421114898546 -0.37627930215029031791 -0.020227951158061439896 0.46094958926244455899;-1.0416269182655994996 2.4890337637894459633 0.64860978613595521303 -1.7111181375648560898 -0.22272979776358875492 -0.56069886388703482627 1.3357269145452232983 -1.0479269992578508219 -0.15086888297101982981 -0.99319592500141828939 -0.28972941840468191543 -1.229405786812867607 0.70671906593201727631;0.37804646250660334239 -0.056346811076508157567 0.3076076439705848764 -0.12471246604210375897 0.13351876081534638785 -0.25242250263520538134 -0.30424520866019028054 -0.86066908405415665229 -0.94315257089909609878 -1.0193921467597983899 0.21670039892653536473 0.80067820953184487554 -0.2281054323858285604;-1.4228154556663095143 -0.90171925616144410487 0.83299620175525235233 0.14291127433807399028 -0.24913527156623249681 -0.22781297951160339732 -0.92087602054837558452 -1.1698768902249088164 0.68031733312844266948 -1.4425736021778523543 -0.10540288499629876795 1.1533992308547866834 0.02081852115563788061;1.3529854912334720041 -0.7735183168832617806 0.57470674068352656239 1.1402654239243057432 -0.59234017979864872494 -0.68639954780040235427 -1.3958446431903115403 -0.78564847042878138694 0.099401800631748402082 0.97512088035038890776 0.51076918731353881942 -0.54632658781596843411 -0.79184804684368104155;-0.097897201694672822403 -0.14677093135940388891 0.514672960342014707 -0.12293112785792459363 -0.88677368818494262115 -0.78792354096610628389 -0.63907671406689481319 0.076681863621421944566 0.39920658591332541798 -0.42961491656507955206 -0.37782512180421551351 0.53864436037125229539 0.7492407616249086022;-0.22137173623743688911 -1.9252220677705873531 -0.041863200031940606127 -0.69547308935723661794 -0.90898146859946460374 0.0085577100254871744933 -0.10359891407653251671 0.20354600408785297749 -2.1797875908447328364 -0.82975189557708073362 -0.032412039186344138164 0.065288881255229580525 -0.98869245851997111796;1.1332917395608799183 -0.14555996128212733698 -1.3288207778684546501 -0.24155943700597562462 1.5929824193008965683 1.1154437651951631949 -1.1920006753620580042 1.4179428009096344265 -0.79891291897183736026 -1.45261473786181039 0.85781971527546807543 -0.18573965688597854351 -0.72531150841592562095;-0.36217963332082825367 0.23353688581041914807 -0.47842311863240338798 -0.18173163193542293814 1.0682442198776891384 1.1673403353865863252 1.0000332192353937888 -0.35193251386245300028 -1.6556692855712322743 -0.9333779641851244202 1.321151416276756807 0.81342975761038371907 -0.24897023820544397776;0.69759256361582433481 -0.010586028464193245405 -1.863633133476873871 -0.060544258642373172119 0.078921952532600064822 -0.78178597973224039919 -0.4130163757177563455 0.35265329979180892739 1.1775638521965605676 0.054132683923211209753 0.69633787608203068231 -0.63784380521490657845 0.77182428498965471864;-0.35538175423378276507 -0.74976197983393033653 0.37894512377443262396 0.30346660784404533295 -0.53934050347573780915 1.6017844391031610396 -1.1316263901805863057 0.15285940617586551982 -0.063620646036854744398 -2.0885471076151840286 -1.0985351512384970984 1.1324346347341140984 2.5071041640351947599;1.1091755035411905439 0.2200369532359598701 -1.0674404628814047058 -0.39735257256613221166 -1.1892213304659784434 0.10082257974062230899 -0.41893786916206243731 -0.7412490104296498572 1.3352082247695526984 1.2775639111252934388 -1.879127702828055746 1.4412700539235678843 -0.81966606439877853774;0.69705081982197125701 0.2059230516323219129 0.8661569476881140206 0.11268161832264558808 -0.67805088335528695964 -1.3375741021182070423 -0.32266344598825263956 2.455438867708074735 0.18350179871107896723 -0.27344557314585704599 -1.0545613986795097095 0.14555503277406070528 -0.16864477493995763679;-0.1573011165381700549 0.48067259602327883083 -1.1249779546189984103 0.052108822701962431712 0.98845530246265667085 0.21898764197629450035 0.99125215014326484297 -0.47919630035225108111 -1.0326634315768759009 0.52575761062577464067 0.7473708192415929874 1.6498688960070841958 -0.087798440547097067466;-0.46928576003497007862 1.0661671507026433403 0.12076772223436119114 1.2370298239549695207 -1.2436385723016813998 -0.63147101564903018733 -0.79109382377183867785 0.74794600256318943821 0.0058654572907327687248 0.45512370484929814962 1.6300166404249429863 -0.50640162523186382781 0.32704212971424928558;0.19045351790618375576 0.37626106588825836141 -0.65166100049138375727 -0.027994070923180187915 0.11507873096197150653 -0.059457978167442276929 -1.5995435361163123922 -0.64269070706789854786 -0.094397017139940933572 -1.5006227366961748526 -0.20459649838145538281 0.71022062348343273364 -0.73226273044585366012;-0.2120395842321437796 0.11196310700162989682 -0.52026220798245348398 -0.46511051953050924768 -0.12831686934134645117 -0.70572675456003530758 -0.14119468910876881163 0.99593643315315649733 -0.70722100849649371934 -0.072438575338421448691 2.0878449963301664027 1.7021388744294188022 -1.1908345112782194875;0.25739615120126513315 -0.22310894951833595834 -0.92077518636949928776 0.78043173727132841844 -0.27646351809333341576 0.30341240827435600469 0.44212067149669509458 -0.78809544472365955503 -1.1162030772300139958 -0.37124056921266201936 0.72285730156015604031 0.037293612266631762098 0.38166558461456290274;1.7241211780163947509 -0.083370570118846076824 0.12879246597750923509 1.940290276366104516 0.00084932557845253386919 -1.2159034363114462618 -0.87746628439841289904 -0.060784341419230211723 0.56987003929262036728 1.9403574038264834734 -0.73739831941156630535 -1.4671952659270182107 1.1290563198901646391;1.1866606223083144833 0.21885493315810911064 -0.3255333326237232483 -0.85417791395563669177 -0.65558442738537570094 -1.1396195982991268458 -0.16365837783955106133 -0.71240768098523010732 -0.78855296051417445025 -0.2946602513346726071 0.034592915935298430841 -0.42906750070063187641 -0.027966359781523369987;-0.96892501625482008176 -0.12861371307527391661 -0.040901654498606873633 -0.97748707649464872116 2.8867345275257192405 0.48522337086820471752 -1.0092092155642502505 0.93703640521670950037 -0.61093842359735017755 0.36761667844991452458 2.8383126461222567549 0.99248527778472683814 -0.26234514372529521564;-1.0705267501640409744 -0.27328878125975591962 -1.1508179103227138551 0.62503917380178886098 0.69628162482971489577 -0.10531910609369758702 0.40478861114183883885 1.5127819168970435548 0.30146060944376285029 -0.36104202181693845208 0.30995875001428502271 -0.44921233731926313304 -0.61082983125878420605;-0.8524952311880064082 0.86974075537769557354 0.30610181597886726435 0.2711066412182374652 -0.82332573259700114754 0.4782392327118890063 -0.63948835675939408318 -0.10944805160115908538 0.83247098304672639824 0.38652458164681224861 1.1699068874856419775 0.19472492700230240037 -0.65524635290977129021;0.61216518450372736648 1.1219342709681747738 -0.004767406731430839581 -1.4676076741341583798 0.89797415677891168073 0.003637456924624332677 0.35633146577333224547 2.539016703722364543 1.296123038403461436 0.010087663262461198793 0.42625852993437673977 1.5330645926525727774 1.1326254033593676773;0.11090788580999111357 -0.27750608686354971688 0.33753732126302138372 1.6504716277269957381 -0.054953260377850643437 1.0013650308987032123 0.54244060410521688365 1.1710667442573361452 0.043047774374272949893 -1.6597447057185943375 -0.63814600596217563311 1.380373135595422518 2.0658930391938987725;-0.3219140674375103317 -0.039353272488206428315 -1.5795597017264755291 -0.1375584599541079811 0.30815940045086015475 -0.11126444908531468725 -0.75001920505002417361 0.88466023405144733616 0.89701820143877852853 0.58288805041370661542 -0.56592310509780519023 0.016550319557972880541 -0.3551852632762680928;-0.40644052708118971751 0.27695886506034200769 -0.16121883049474880489 -0.012673808810509407802 0.49203000492481646644 -0.45265804818808558219 0.040336351520654421809 0.68460240625297419381 0.17100526309542318781 0.53833030410552817902 0.69676490219776487933 0.63997309998789464469 0.98345838988198797104;0.42621943023695618713 1.5001081873107184883 -0.4129262403843508844 -0.7459334801528841874 0.45956377074740573097 1.1404059837856115323 1.0651407601489017996 -0.13181224631690433013 -0.10983742793207308674 0.8922899359816403031 0.30503347721286899752 0.41206244955237864014 -0.10962707324153182775;0.13177438565466406684 -0.54674174533964758904 0.47793184599900601084 0.12426681097345054772 -0.24200544170104920649 -1.3990244324628857697 0.46847556858272443314 -0.54748925782060287037 0.53424264765092599472 -1.4192070318625040759 0.33020081690932762131 0.02183053734824790329 -0.6915131438300803346;1.5635092838894160128 -0.50047506890619564146 -0.67291087568492069515 0.25641746240257112799 -0.79300595322055289493 -0.5748743461297556312 -0.80572864352024575751 -1.0150031940376498252 -0.1348668116052279542 -0.75876517928736875174 -0.22666680640160430382 -0.2549318393572247432 -0.33502431035781676805;0.32155130822994770767 -0.31783396535046859466 0.12754336126552179298 0.29908133187129803954 -0.011999622722560179811 -0.55750959110734843449 0.15510091303866199719 -0.98351054788716762989 1.219541108173094246 -0.37544878124287350829 1.6698247273602400131 0.16084497664843905307 0.70863403630376176068;0.098459938690020509799 0.69252505535920538815 0.095130190804081221634 -1.8014439718306578531 -0.86441455327503680106 0.30733754752437558722 -0.46512440379712016725 0.66603939235792275486 -0.55098322608434235903 0.62863841559284783234 0.38593538027932344781 -0.055035497907314448462 0.4031285821765877575;-0.38988633711035347584 0.57872820561234028514 -1.2041382797028516993 -1.360871271591723719 0.12543372360988774838 0.90986600397949990437 -0.86137319034152737274 -0.17505527404704754324 0.59775868819160327128 -0.32641429791946602323 -0.28488918557545361843 -0.14659028800713494456 0.041120311549340766988;1.612839955540490422 0.38670476299549166876 2.8688860833852571908 -0.32752878390255396601 0.44630199503858480892 1.0363094991444248283 2.0973302049031761207 -0.33784634417303172071 0.54122918354152815823 0.48904104321628527607 -0.20581908123969833158 2.3656404633452137176 0.77156494189784818882;0.35044759104850448095 0.34695635794953044728 -0.3586783669471963476 -0.5691790995269215836 0.17119419683316591807 -1.3057199762050524239 -0.36461718183919533676 0.70674053622051125068 0.67088652667057091517 0.31054725602167104759 0.73750894243348363855 -0.83659754425381860354 1.3086548772007327024;0.6876549214461978865 0.26004545234972620271 -1.1850221344247151567 0.73698699404639878008 -0.12489626233945105849 0.22474680931076976287 0.38527812148354168009 -0.47729044608774834346 0.44291918095446558556 0.68634390946627821251 0.10167666907547688593 0.11616056222806558917 -0.60628029259104554427;-0.16672068653548197115 -0.83431132214853931384 -0.045584051639481107387 0.22735651895894543051 -0.21195695060267291665 -0.65336834310263991465 -0.84442235614212712846 -0.70260736394107992098 0.24451658982502322282 2.0368220960279814769 0.58092725147885038162 -0.58020164789099015756 -0.85484694436121699823;0.2052095261570017759 0.74960555467237677263 -0.0059042060423775688527 -0.72005553222190255003 -0.45104088375284440149 -0.56716967919691008149 0.04837957713302038637 -0.83689343919636483005 -0.89430954380998539666 -0.8151706996515348802 -1.0425838619288141373 -0.42420576031523460347 1.1020773351394541617;-0.051979000755438271864 -0.019679492035261848815 1.4412906751927017091 -1.1254661199109476932 -0.11055119893075231186 0.62925984117169841969 0.65754145718027190437 0.46728114355042371653 0.33059470987569516964 -0.94677110330813618599 -0.80154053758800014595 0.33259374374158845455 -0.23549842309281834862;-0.57962004699102886995 1.1499149337033305329 0.69425400735991582568 -0.0070447453022513747967 -1.8574523455515494774 -1.4632023050109284057 0.43002824361389324626 1.4159774587182833994 2.1953434858262226292 -0.32489112976245959619 0.20167801760505676967 0.12783877166158277849 0.27718938364082790216;-1.5020953279023472327 0.67670036781478137833 -0.51419421761680195182 0.9122223803495479455 -0.86070091012401117592 0.064376450615350827578 -0.43731337563631150767 -0.86850726955339419 1.1545568132327248545 0.28909258243027530222 1.1843741001540575297 1.2236126515961329719 -0.61226301777104463753;0.49420287931428441563 -0.50552551941793666401 0.41498657717437759107 0.90152080699043579681 0.34572193409316820389 0.063599291807511990071 1.9624362838744693338 1.6056595435621809909 -1.1144566585514179557 1.0281554206188119327 0.17322422942814824642 0.24564893760107514575 -0.15377574969139851113;-1.179748291450434694 0.69520669851993155408 0.50556536134666552051 0.16580575437453343168 0.32904437339657383044 1.2080019657266196642 -0.6412953276869765018 -1.0175038137032250685 -0.76209745888889424137 -0.068828562590236772034 0.49645277891352196376 -0.27094370078980839489 -0.17341934332452363376;-1.0370826999880298214 0.43679778764412041658 0.18505969026962323931 -1.1750883699736567323 -0.73501757688551505598 0.43118680899232653125 -0.54662802599240645218 -0.37468497019443425256 -1.1964940027564732183 -2.3506780998822160988 0.44084180794632588096 0.88710777333374879472 0.89957634135194830538;1.1806813737560244437 -0.10544828282186857749 -0.69874927364784822359 -1.0587521463871603089 -2.4060544505391847636 -0.051831906123629867267 -0.2196937306145131108 -0.37412394589114766896 0.11286819773337386508 1.5911733477352343336 -1.3709665516892397541 0.19959610865495783227 0.71905290758747397728;0.83357819714638747843 0.84576198873750674245 -0.91736294117200256615 1.3719607740909882665 0.69985654498181226746 -1.0511012136177322329 0.72198458399282050557 -1.3178116344174317653 -0.11100416667939673465 0.12268315652993007359 -0.32551120563135527153 -0.011459014658960292588 -0.94073347912453986197;0.053156935991793628771 -0.22160381217651209385 -0.11525173790468590251 -0.0044723218588362300199 0.054967730884739059161 -0.16299336423938223795 0.43886536118531982442 -0.58892463127429006686 0.05582909940938085569 1.197714187949685094 0.67466291509196985032 0.89096694096621287251 -0.060428083588126936532;0.48735372998546416801 -0.14375898597946065727 0.80744460035543252907 0.40245914616232725258 0.78114836827022215981 0.39560975436801965044 -0.60163110711223677374 -0.75688337804727190417 0.068480231956500395296 0.20992742626813856721 -0.52219478267925423243 0.43227957585231902016 -0.62715219366008523316;0.13043647334198915644 -0.72314826240956853187 0.6704747812436637755 0.18927660009626187665 -1.0266868517205045563 0.53096392425601945941 0.36807722848442842034 0.22717197256478585676 0.036462678976193534097 -0.70481087131239705812 -0.044082328786771041162 0.14977159148222088381 0.8132970890164789024;0.10404910022491428712 -0.36604691900855318432 0.87948334680946671504 -0.37197273861011131979 -0.8124975776998518695 -1.6013494895967703702 0.68988640560720415618 -0.86855259813058116602 0.11499977785292275767 0.80589045542439008418 0.20820624959366573759 -1.1892943719053277185 -0.98349325072832616268;-0.14843804134072924317 -0.10820117735278467208 0.91546395432116256519 1.4146329236328651913 0.0081363535490812412265 -0.48164461791854468187 -0.10231476612812910598 -0.23563286174883601998 0.50256387381164102646 0.83914457333958236696 0.2197485220092265934 0.47888139384727440584 0.77516425021994583844;0.087313420676112404872 0.59106799958571876186 0.24468947696591636376 -1.1878650436397244494 -0.46610061747149150735 0.28011039893235095688 -0.085846405861211144694 -0.057023259751463210854 0.24857803363540559305 -0.32868950605411212385 -1.1642537660720440051 0.99082080476645084666 0.77528623233929183645;0.21249834373709333701 1.2625016041127514743 1.5304756247217898846 -0.38805744666296787537 1.5419405534094803301 1.292851156979390792 0.10307824759224790134 -1.6765903222643938619 -0.97492792515899917571 -0.048104702325866194323 -0.41369404881058896573 0.30137959024915372819 1.6794896917314565687;0.66511928312167922783 0.82077252477319762036 -0.14041676328310062627 0.19309181582898587992 0.49435414404195926474 -0.40041568976735764096 0.40323158255841490272 -0.73094594084135311451 -0.021115118497783580409 -0.46514655396500231843 -0.27741686837283946465 0.66662828788912908973 -0.16682909562855235963];

% Layer 2
b2 = 0.81602784444562970201;
LW2_1 = [0.48824512069151448923 -0.41103516917408916553 0.72932803574284332804 -0.07539419359928585529 0.8883010565281783677 -1.5037306562852503777 1.0218592334142271305 -0.66842344542458564938 -0.46155279439344004677 0.40150576403555215954 -0.11147613356947573549 -0.89796390021656058433 0.71671774369122531745 0.054792406327496399887 0.97152574437887329051 -0.27075968140073924939 0.34017456209531649058 -0.23476686366013466145 1.4067260644652168633 0.38953725286137147465 -0.50206962754043438224 0.040179944013982435425 0.57839802478391089124 -0.28766553357352497855 -0.55439306937073784542 0.38697544285486518145 0.057418963695218365462 -1.2652488621174318162 0.27838191136348644505 0.037633134912918510262 -0.37004089135084250461 1.2733720437801181458 -0.15940325948064432149 0.80223646328544595541 1.0354305259063389943 0.25325143624878537763 1.5564599369500693449 -0.8218726940962535199 -0.18833757153966718123 -0.81870693632667279616 0.038069466680345866172 -1.2939274186477229822 0.65757070411461449044 0.62683644067430832614 0.82324077208795642946 0.58801887905187555372 -0.0073462994159370900368 -0.39956237010235695628 1.0778094400591153867 -0.21835799679513098748 0.061643647431777609524 0.13269648821324434018 1.2156289760415253109 -0.35489403321546775238 0.52397913066781953706 0.64478458120807069509 2.1090756595675199669 1.5165979579218753504 1.0578814483530836199 -0.5641637530204240969 -0.84470643216454532887 -1.0831292440023065904 -0.6975244272276874824 0.88237364393895600934 -0.57855650890800902619 -0.93342068178215020779 -1.2182100969669762414 0.48400342623777803386 -0.3201451629323288639 -0.41153658753816724225 1.1149101401830645575 -0.68859218676040678808 -0.69366235252010166601 1.4060735046678249915 -0.049465769897419853418];

% Output 1
y1_step1.ymin = -1;
y1_step1.gain = 0.0421052631578947;
y1_step1.xoffset = 0;

% ===== SIMULATION ========

% Dimensions
Q = size(x1,2); % samples

% Input 1
xp1 = mapminmax_apply(x1,x1_step1);

% Layer 1
a1 = tansig_apply(repmat(b1,1,Q) + IW1_1*xp1);

% Layer 2
a2 = repmat(b2,1,Q) + LW2_1*a1;

% Output 1
y1 = mapminmax_reverse(a2,y1_step1);
end

% ===== MODULE FUNCTIONS ========

% Map Minimum and Maximum Input Processing Function
function y = mapminmax_apply(x,settings)
y = bsxfun(@minus,x,settings.xoffset);
y = bsxfun(@times,y,settings.gain);
y = bsxfun(@plus,y,settings.ymin);
end

% Sigmoid Symmetric Transfer Function
function a = tansig_apply(n,~)
a = 2 ./ (1 + exp(-2*n)) - 1;
end

% Map Minimum and Maximum Output Reverse-Processing Function
function x = mapminmax_reverse(y,settings)
x = bsxfun(@minus,y,settings.ymin);
x = bsxfun(@rdivide,x,settings.gain);
x = bsxfun(@plus,x,settings.xoffset);
end
