function [y1] = bodyFat50(x1)
%bodyFat50 neural network simulation function.
%
% Auto-generated by MATLAB, 30-Nov-2020 15:42:08.
%
% [y1] = myNeuralNetworkFunction(x1) takes these arguments:
%   x = 13xQ matrix, input #1
% and returns:
%   y = 1xQ matrix, output #1
% where Q is the number of samples.

%#ok<*RPMT0>

% ===== NEURAL NETWORK CONSTANTS =====

% Input 1
x1_step1.xoffset = [22;118.5;29.5;31.1;79.3;69.4;85;47.2;33;19.1;24.8;21;15.8];
x1_step1.gain = [0.0338983050847458;0.00817494379726139;0.0414507772020725;0.099502487562189;0.0351493848857645;0.0254129606099111;0.0318979266347687;0.0498753117206983;0.124223602484472;0.135135135135135;0.099009900990099;0.143884892086331;0.357142857142857];
x1_step1.ymin = -1;

% Layer 1
b1 = [-1.5537569892763243296;1.5128538265545203867;2.5186765703500872959;-1.7873482951983266087;1.7315519872517000088;-1.3986730102487974214;-1.0548225486002087425;1.6638094941249619296;1.7106176719437418132;0.30074773827156919825;-1.297389794102636662;1.4186763124255528101;1.0437348922500591097;0.44438264857749920633;0.55188817955587055053;0.68527731212187148468;0.38033651648336186391;-1.2655216856618038967;-0.60985833416074108904;0.87578360254159992593;-0.12335241918313424869;0.2284976388019051563;0.14082035760934485946;-0.28164160934986709472;-0.54709390959796144749;0.049816797286407601963;0.44237686616423438357;-0.029368629438195285875;0.59479581796143510264;0.11875284898109220166;0.50539295584295951258;0.23778966065488316151;0.87487652384904079916;-0.63997865303629108968;0.006296101406468836148;-0.15453568600441380809;-0.9451410329005585087;-1.4146938570776099731;0.45864010449405667735;0.66013669060481816597;0.96178927524850743591;-1.488117228498728517;-1.3575385125500309957;-1.9079911852310669218;2.0962031780246732637;-1.8470030689941063784;1.7382995101617189082;1.7522855559773748979;-1.6735920767390217723;-1.7309465326697024423];
IW1_1 = [0.43629890142539595743 -0.30360220113626268379 -0.44471027258235301671 -1.0323571205278940788 1.2307549555759800253 0.26734657976501424725 1.0784723428676132873 -0.6994293844560310891 -0.73180303803879553914 -0.12447040795241648414 -0.50036445444381949521 0.49815987537137906838 -0.36299424044164663172;-0.22718455469690110315 -0.27983525518250818021 -1.2674491370720282202 -0.91542189698002429665 0.21967315195396533434 0.076839753578445413318 -0.75595587222434601493 -0.73812409205308393556 -1.151376530599047765 -0.18349074360373129888 0.72220363399286946482 0.23368725601388556923 -0.078825019217671543625;-1.2175547710032712523 -0.52553288649118790055 0.83640669380863330584 -0.24436413431836434551 0.99717399634427872357 0.5158612908848473344 0.52980007694897668369 0.51542180290143468913 0.042428972052368160717 0.070787331920124652029 -1.0910424584817606242 0.41040847957579629224 -0.50083858325833185976;0.20288575088622967657 0.22407445005416981587 -0.26542989805905337075 0.40318410666366677475 1.0725017570345276585 0.56934016604976034337 0.36828721780238149464 0.24086388695411437011 -0.54578030064751137385 0.62747758005860398978 -0.25405382235768220189 -0.79887288045188287189 0.15686154994539014407;-0.22193655210788240661 -0.59304434006877859709 0.39673912214438605828 -0.20317273655579931591 0.72319325911325915701 -0.78174267082245452176 0.17037981145541486461 -1.1488989263648665684 0.65276854019931407347 0.37506911526187486361 0.34541518732684112214 0.22711558906844150907 0.81336834064781293741;0.26789546889886611813 -0.26787870242033590129 -0.013435681490212778022 -0.12641765125531978509 -0.63984805515129805631 0.63843103547327073599 0.75184339291203716726 0.82879717937524832738 0.33339371229000636099 0.53265616291661632697 -0.57895030237198985557 -0.79454555141232596771 -0.19581915811212521894;0.16819950920239365444 0.11349173978669691021 0.89909888576275442951 0.43129233222895935196 -0.5388867613219588959 0.80952296710213544895 1.3951240781709388639 0.51810377693897413653 -0.11851924468826410819 -0.54099483956521599026 0.11549270047835985542 -0.88919541658882539359 -0.573131988570690587;0.33844934766523082637 -0.3424925306514476353 0.030537271595322629247 -0.86964132554404471875 -0.30389785838718691435 0.042639889422935839391 1.2433658858127285551 0.80331223307407828571 0.15840951415717233197 0.39845550850375399676 -0.27740929048601165041 -0.77941748184070203109 -0.32295542208023830799;0.18802371228724826246 -0.59062950878477904482 1.1586880160811667828 0.16927573176086102569 -0.78323659875997697632 0.58735473865285625639 -0.48994695879088168144 -0.64915254694713719896 -0.54357517620628004185 -0.30217723940276913774 -0.33050532866441401092 0.36408522357161338112 -0.54985119573279783722;-0.68522154639250842934 0.61252442524769379339 -0.43537144968444030368 1.8271980673143430884 -0.25277541514313534021 -0.1060850682636667458 -0.75491799049372088071 1.1035319024518157605 1.3211707993215893175 -1.1956608333371741004 0.91461764755171559571 -0.88726843789979237265 -0.54934185845414995608;0.57828712829621098379 -0.76071805558510208201 0.77033432829480852355 0.44180740627039072344 0.57125193780401950505 -0.27694527757588793815 0.043188611848791309822 0.42882918230566002826 0.66793044525594491567 -1.4102202966707553244 -0.95434845828053382899 -1.3990996463139324657 -0.31430963734321243352;-0.96183693660825619887 0.51716448801989356454 -0.60057477068322229208 -0.6098663186171827677 0.12759736036787605595 -0.84474186017635466417 -0.95888442477617696902 0.51713960402952641182 -0.13398035281378167793 0.33995273284687627102 -0.49152829462579306075 -0.53436341233329009981 -0.20055518033866831518;-0.7224174609780270595 0.7708556089393910904 0.6058679711833440118 -0.097297494896230171668 0.18764019603477319342 -0.355191654203219076 -0.64478280413907362867 0.3325724122944975214 -0.56413769859078055635 -0.52742319259548786636 -0.40577618839416096375 -0.56268859875193466547 0.30569986597685988583;-0.030590525161364928719 0.57703635140846776252 -0.54746925554382241952 -1.2660169116987614046 -0.59290830663536564504 1.0382650746779273909 0.25248845562475263904 0.88834746051169699577 0.61645497512468172552 0.094940956079161309411 0.5981672117815880485 -1.2320473570339882663 0.93044344203706885743;-0.4376714003822795851 -0.59599622142423669402 0.42911978935209504904 -1.5764613190487004601 0.12459721704700885136 0.90274082220640305962 -0.52464050707571496801 0.67345254671970899985 -0.1958153661539848156 0.51167836212536754736 -0.74960406154819370084 -0.28451849894099023874 0.12802517799870133386;-0.19160454863534312486 0.2562468124342230924 0.38302234221172587469 0.16184298992920392868 0.53779273905530511346 0.27462094925755081709 0.80984497628300267102 -0.66044426762414953913 -0.7536196771396102001 -0.54619044077951450777 -0.072423959259354492302 0.79581197897481414927 -0.61176295071737740727;0.31254186013201984418 -0.8100905473841636395 -0.5050721163588651752 -0.92866484416727512752 -0.75659079642708371161 -0.90184896699150773891 -1.3522526060011279547 -0.6292953323728959214 -0.67405331147703340111 -0.27673084404399800329 -1.8527510741142549922 -0.074539273227155991575 0.55175001666023193447;0.84707452583132847312 0.77696155109626163782 -1.354971669206046947 -0.3560743943835477654 -0.38567335293789462014 0.55589210100994412844 -0.21864694599470757552 -0.69941622938823622135 0.21461460708880433779 -0.031416632562497125158 -0.32458957529681442544 -0.60635303587524091995 -0.2779677441824298656;0.11928483535010325767 1.2151141310668245321 -0.50046843507308214072 -0.050224230225117016957 -0.76737999633524123233 0.24667345775142218711 1.068716191296757545 -0.81792929109635315044 -1.0587769839410448025 -0.79432880999166688429 1.3605622368076961681 0.13542463237461499492 0.19019397410228197631;-0.58435903447822357126 0.59725244874010441354 0.85915764278758299799 0.48052420476209956046 0.27139603210081636453 -0.69169020214017906678 -0.40463918265511722439 1.2959687574291363088 -0.95119196083309132117 0.14761574187687129256 0.54704864695940280672 -0.33038243188759702784 0.36728285277562439104;0.38187544967779590843 -0.31807971215905611606 0.54369663388436773044 -0.26530072922041669781 0.74477368481789907317 -0.70235929311302847111 0.50389231466043560292 -1.1338112290692816675 -0.70145340956175528113 1.1359804074809736196 0.47706342993117173412 -0.034803422030896480344 -0.47954119830641533939;-0.6003677641470034354 0.1500289862364883875 -0.62516183641099476453 0.61050497484118482205 -0.96920780863114375236 0.20968865023160135341 -0.27550039683517080213 -0.37392524102044810697 -0.27924519065443909049 0.38420917498750500885 0.61564523157820028043 0.71856192210826363986 0.26476408654998123682;0.1242450154233845222 -0.57438995579251928003 0.51934007533994375194 -0.043029880426208588773 0.84363300560770893011 0.19863812193050028876 -0.78078143185164949891 -0.29324073945762441085 -0.62396547927732448624 -0.86125804310885012427 -0.01719192411344600685 0.53876061528982255311 0.20016413289164830536;-1.041541696887369417 -0.95091773847915317397 0.21853879836107339973 -0.24777518321210942331 -1.2093299934402850226 0.17957533094949909569 -0.61395959417389356361 0.40714952657815595138 0.87008528391275530289 -0.40207126827836536798 0.96980726015554408193 0.76700298293530078109 -0.15584154930840146691;0.55485631462207551934 -0.079918520599127143567 -0.99538528494767508636 0.96955965740907301686 0.093748094637026241349 -0.73375273278608266203 -1.0070238825056312404 -0.34652625395414060616 -0.66789482277929645981 -0.67775612876329438539 0.52565509786962250072 -0.3415075388698564085 -0.40243329009553396869;-0.37041463245057260067 -0.80013390244078930191 -0.0050501822632662337481 0.12581799953281974647 1.4182150954478114357 -1.1213928501325749476 -0.77322543366483065252 -0.95612091374800456389 0.19018003907841418698 1.0236920170954846299 0.50975518688723586713 -0.54465389465104996347 0.7699394838731856705;1.2721210536201752461 -1.4479916173062530316 -0.77107230600586640357 0.44611522437195438862 -0.74923301312791523721 0.80115241147933269339 -0.24012038543858477135 1.9183856089245805432 -1.0341687829536074794 -0.045134283842174827139 -0.0074956039847251521024 -0.091688021724103715981 -0.68371375856542693228;-0.08527397971021144496 -0.27872876758237974393 0.83598867678648003388 0.052259566808705811003 0.59003834502025620523 0.87051511809902581973 -1.2003340871321499517 -0.49586239133064208273 -0.22195700854630837084 -0.62460976360698605703 -0.22730569600378236483 0.85336955446595785801 -0.72549287877360635335;-0.30186729930226890994 -0.59194651609187065588 -0.018266860500094406206 0.015494319711606405199 0.12257731643641588126 -0.52636873255184835063 -0.60981517541326013543 0.20516300409975685159 -0.31527435637818401748 -0.79164066043229086578 1.560302497937305688 -0.10984166414027349279 1.1770451889162021342;-0.32361059927139046444 -0.97747403412295463809 -0.90700278104891440822 -0.352639585089078611 0.77679556079693323767 1.5522912529087808942 -0.52969297430722328546 -0.038257704454424223961 0.045420329930547620467 0.77472082346184600876 -0.56125030417594989895 0.061751856019261648634 1.1329134610683921913;-1.0880878419403092749 0.076925540722563245932 -0.13033575376705691662 2.925049655520123304e-05 1.0418528357758367608 0.19475238501245692446 1.3767890302816889747 1.7009748843251479844 -0.29427084118279456249 -1.8535623436965458222 -0.50981883800041272181 -0.33508726018972767591 0.98833986868032686068;-0.13332581969253856635 0.72276553308317581514 -0.25279125932611640204 -0.83443119051974257161 0.47912176060855216075 -0.070325255403991621117 -0.86708026742832744471 -1.1646157803475412074 0.25994560918927739346 -0.74175455788482791419 0.11553197887578819936 -0.4143908060935106441 0.54741261855123490854;0.48937517176956141229 -0.074153698668519368864 0.34227870228412837772 -0.27108795868761420556 -0.91531090845617624208 0.51756534890057903642 -0.14176248829652068895 -0.52893917532713019547 -1.2312548556888209816 -0.18932752389549825645 -0.025534867662581610392 0.28149035479168582619 -0.00070472088042008995679;-1.389150815951810003 0.14009356207108697445 -0.093365085530948729864 0.58022395691547812291 -0.39860398772848282256 0.52221832999312123302 0.30481652577078310884 0.42801094443880827178 -0.39438760519781340674 -0.33608929241328500126 0.27189331499311197859 -0.23058216627198302451 0.58833805727462729074;0.53158230636373549061 -0.73328803631101013849 0.88165344057981909209 0.88778349745456586195 -0.33202193466438711944 0.28740561287243882038 0.41573699206205078083 -0.66155101916287406549 -0.036348896634104593817 0.9297878851812254597 -0.87442796420155810555 1.3532807204010683932 1.0330755927028889563;1.6192907292955622811 -0.38199810913357568065 -0.12591774898047544684 0.099224754979088017337 -0.099396174261611930367 0.1165680210551778978 -0.41179806891042558536 0.44638383840306861128 -0.26516842572671284195 -0.12854608163816638733 -0.41283444929469614859 -1.0915980082681826513 0.2202564596168816724;-0.34710294199072078136 -0.38054383245071732311 -0.58520126317403964311 -0.54573662158126878818 -0.57199102497022025204 0.4016911194897226367 -0.50694067937808839908 -0.59313805519567031066 0.36638541328083928938 -0.28690091386596427991 -0.69431907557423200306 0.55815249145666301356 -1.3069474331236623499;-0.93427841377910525456 -0.10343678236424919126 -0.95008241203562249222 0.20613945034764352693 0.10716962200527031801 0.45937083687846852476 -0.44508891323567328913 1.2694575740886353543 0.23279278968713709719 0.26339580455882727339 0.77723427650789822518 -0.83076613978894819912 0.045253669546553312864;-0.79716492192843813047 0.77485886782815294183 0.68247710127794103396 0.39135123527115217579 0.17412394003645503826 0.72613195225158255752 0.7367674191878340606 0.19715823742103749661 -0.19953949256148295621 -0.074766559206070629107 0.065929749870189097161 0.11182740360876443353 0.37498686693343941112;0.97657230040754183786 -0.08647532785381592535 -0.076252407037008168578 0.040727928762235722504 1.4579596652214186214 -0.44615424362931827007 0.40764366510625882345 -0.034105973741130966859 -0.52511683986745860686 0.83622951402915934871 0.21055846333274166882 -0.77438149232278807865 -0.60174163412045433841;-0.088483834909137915048 1.4273024334757238307 -0.14630195875004306516 0.39070843319184511699 -0.095909414349611699091 0.031980703152243356024 0.37040093076357244462 0.70334697217514174916 0.4272545737452903003 0.82202290551042223044 0.79656569298122170686 1.2462058045771742254 -0.30422113581605558785;-0.92724208814117103916 0.52541398601877109531 -0.38725379242842999927 0.011530636983679266871 0.54889032516475344536 0.35799413176163297212 0.0093857607398668951165 -0.17809236702287306597 0.79232039168596180012 0.43389673944201789801 -0.78653598243991329486 0.25616408849353311528 -0.43225282931283448562;-0.58941348147559358139 1.0717124264018833557 0.51840293183872176996 1.6011818151173828895 0.068384455232336327501 -0.76116916618467289624 0.17793499163659615148 -0.2733084566225641443 0.049108294250323501762 -1.1905666887685750766 -0.39576763820382176995 0.16966828126983879432 0.3700141643460558849;-0.83912578637522816649 0.34673473748652666737 -0.81008162380600223784 -0.85730303552099584863 0.63409014756332038321 0.44966326779129095481 0.21629540648149531146 0.48184241367365571174 -0.5793695254720877541 0.4046088071833778832 0.94359163805242718404 0.36232790139389220441 -0.25860341727099972475;0.40959349769057545876 0.1745271408047440187 0.75191485394108592555 0.82608989889230954873 0.27859094801249095763 0.48781375797582282594 1.7658209575947225733 0.4299731669060279371 1.545072410193333079 -0.25638427329478519212 -0.21598332743765730202 0.8732285180161387661 0.031464574143047055466;0.34902230246254317692 -0.24412864525584734854 -1.3897208407106731443 -1.0735679046900439282 0.38558496333705105652 -0.4302315623340137174 -0.30910941985397344389 0.5816833656632995897 -0.17111328293391100952 -0.11433895684919959113 -1.3761998139436719679 -0.99673892302822786338 -1.916876739368398308;0.73890173260653901899 0.21622015255863669125 0.54690867160306511074 -0.52286698513806606492 -0.19637937087063675468 0.39305987399566599816 -0.57943696403608779821 -0.95562923897813545349 -0.52694487621533703248 0.13276365623084504519 -0.65123411456579338719 0.84358916226526303728 -0.18386112930541720356;-0.21620622999514027551 0.49665077614395625183 0.16138891128335344782 0.82945682717747004631 1.4738926732422645838 -0.74663317228001202519 1.0115646298276705917 -0.55126731305569243169 1.0914446881563046876 0.5138640925322397468 -0.74647827727056981217 1.5213533782055002064 0.093748404498714993371;-0.54009690287815725895 0.098636050986335349622 0.81300410969769232317 0.19727945799346646716 0.80876743975412279664 0.022910253757266269004 -1.116571808779952546 -0.6292043622698304528 -0.6761884677060758797 -0.1514184532553753959 -0.78356566601437815933 -0.54194128719370404657 0.83696535139366834422;-0.43772970536011707177 0.31173882587988199777 0.074026116169643121911 -0.12861584868670813964 -2.2853820283376693467 -1.4008881807519228957 -0.058821559791283034579 0.74799524193227606705 -1.3543907111318456149 -0.53758874097801245817 -0.18591175917821081698 -0.58298250886344415989 0.12405041944692386802];

% Layer 2
b2 = 0.29231224145105783041;
LW2_1 = [0.99622272141434620174 -0.95649662877604413325 0.25617651617168973877 0.40605179168096533493 0.0026701008117594043911 -0.39505128678492595906 -1.0182773725471641058 0.40384731845180882326 0.053637140561944296469 0.41228694373983332255 0.77896036386861267076 0.50267327016698293285 0.021676984473703503342 0.59273600144311999749 -0.80999541463223190263 0.36415178755561761204 0.76491600670185910804 -0.12132000718040164555 1.1890368358415273065 0.44811087066562027559 0.90911665930372875799 0.066072090065372651724 0.30436321181765985111 -0.0070800997067966726928 -0.97098210224076020314 -0.79352945365492333352 0.93995501806622683283 0.83632945371099420839 0.65276298811592248228 1.1099965163483276331 -0.44352470900500839956 0.97607327912999242159 -1.7818826056815812997 0.32096447965179791817 -0.25018099237560365022 -0.44388399443220089013 0.10616051234844273155 -0.49025194750673811717 -0.24872944570488600413 -0.28555748841206418653 0.23562005626786330925 0.15957684087303672382 1.0364841340845032391 -0.084780124955444444157 -0.51014566592006538315 -0.37087134496029056097 0.86825014787949972295 0.076913866339796993499 0.10714863083075198968 -0.42091716282896723955];

% Output 1
y1_step1.ymin = -1;
y1_step1.gain = 0.0421052631578947;
y1_step1.xoffset = 0;

% ===== SIMULATION ========

% Dimensions
Q = size(x1,2); % samples

% Input 1
xp1 = mapminmax_apply(x1,x1_step1);

% Layer 1
a1 = tansig_apply(repmat(b1,1,Q) + IW1_1*xp1);

% Layer 2
a2 = repmat(b2,1,Q) + LW2_1*a1;

% Output 1
y1 = mapminmax_reverse(a2,y1_step1);
end

% ===== MODULE FUNCTIONS ========

% Map Minimum and Maximum Input Processing Function
function y = mapminmax_apply(x,settings)
y = bsxfun(@minus,x,settings.xoffset);
y = bsxfun(@times,y,settings.gain);
y = bsxfun(@plus,y,settings.ymin);
end

% Sigmoid Symmetric Transfer Function
function a = tansig_apply(n,~)
a = 2 ./ (1 + exp(-2*n)) - 1;
end

% Map Minimum and Maximum Output Reverse-Processing Function
function x = mapminmax_reverse(y,settings)
x = bsxfun(@minus,y,settings.ymin);
x = bsxfun(@rdivide,x,settings.gain);
x = bsxfun(@plus,x,settings.xoffset);
end
