function [y1] = bodyFat15(x1)
%bodyFat15 neural network simulation function.
%
% Auto-generated by MATLAB, 30-Nov-2020 15:55:59.
%
% [y1] = myNeuralNetworkFunction(x1) takes these arguments:
%   x = 13xQ matrix, input #1
% and returns:
%   y = 1xQ matrix, output #1
% where Q is the number of samples.

%#ok<*RPMT0>

% ===== NEURAL NETWORK CONSTANTS =====

% Input 1
x1_step1.xoffset = [22;118.5;29.5;31.1;79.3;69.4;85;47.2;33;19.1;24.8;21;15.8];
x1_step1.gain = [0.0338983050847458;0.00817494379726139;0.0414507772020725;0.099502487562189;0.0351493848857645;0.0254129606099111;0.0318979266347687;0.0498753117206983;0.124223602484472;0.135135135135135;0.099009900990099;0.143884892086331;0.357142857142857];
x1_step1.ymin = -1;

% Layer 1
b1 = [1.6556591852397788411;1.1947188025908184184;-0.90994749470463076602;-1.0834824773371503071;-0.99346157173319471489;0.11843755844590732329;-0.01016956444211169347;-0.12785907224973031004;0.3594700253282614999;-0.49241348047303656887;-0.83333163660440590093;1.1204215350557247266;-0.54693638764643903727;-1.3907405003187396364;1.8959817305373305452];
IW1_1 = [-0.35220734410865384145 0.35975470646466928271 -0.17329889863565489661 -0.70008984163713250393 -0.36847180802029910751 -0.56938566855144545631 -0.3647676358436600097 0.46699968460540020043 0.60607346201868239621 -0.59355856700500808643 -0.32847066365195376481 0.59342184688368115886 0.42860267252200023869;-0.76120197905055175802 0.080343153959487573212 0.094082736765330826634 -0.5205633940768871204 0.14727512849276880313 0.70718549727324897525 -0.26078688095854268836 -0.29601823255760340015 -0.72684440623598123299 0.3750942817910074556 0.014743428785121234781 0.98431380955410374689 -0.64103737273084082648;0.50428863621184005783 -0.51130592390997353647 0.32526429994494410192 -0.54168329244601876038 0.028636423380360844643 -0.32438327176940512375 -0.44543969152421702962 -0.28153357916885379808 -0.095607118792084735959 0.28388911179938641771 -0.18330845943324733383 0.19889644446619847429 0.75305760195737059259;0.21522220866544675144 -0.62081154124309545494 0.28991256725115904791 -0.37820837911486498983 -0.38190973250108828374 -0.99995788339053537364 -0.32566829007342706914 -0.13890546180911059193 -0.96902412000005022641 0.54456205176754335362 -0.67115893501348111716 -0.33213802580831058853 0.66026905652727618801;0.6608342909357963757 -0.17151386024478681991 0.090723271363697829961 0.52520699820541127956 -0.0051000162354240263785 -0.3533764757283757163 -0.55701296073918526996 -0.81160058931867562482 0.24730524186407187859 0.94061149168906599272 -0.29001053442335356092 0.34848081803329283845 -0.4918992803991701912;0.26302080977070391166 -0.60215088101129132792 -0.1830104408940447791 0.014485949366957490136 0.03391333565076355 0.20089872878331704875 0.43951759864402850653 -0.31903011118681107172 -0.19138283799174146682 -0.98314202757416513379 0.029180126243684809118 -1.1494555184619792421 0.17443013880189772724;0.098085416117654172785 -0.27926666174347170024 0.31055178325777965664 -0.81149938099193186236 1.017638276116444418 0.69958343339839079711 -0.11553563997275205499 -0.29433237563305431062 -0.0077692722673737349415 0.54035337549827500148 -0.82918161653107036457 0.25820074837746220808 -0.63967722075108379709;0.41379069684276070795 -0.076449089553654370199 -0.64371667550616895603 0.069242792041498177347 0.073911122274259333231 0.22339245538232946342 -1.1991093067160960572 -0.79992192520650606813 0.33265769385815385784 -0.13238824556980718916 -0.38684525275903847152 -0.61960896524282660369 -0.32250145474482899699;-0.3575793663354683849 0.19363222498366261526 -0.63563318187474016074 -0.10780421794582752126 -0.5581758648716590443 1.1913330437853042465 -0.62394281407200224976 -0.63638367101502546497 -0.76678027536203274828 0.17547056821253598224 -0.36324952533499760277 -1.393280022420813502 0.3278160320042131648;-0.18861785372733130828 0.47691685000071681877 -0.31205818660393230823 0.18737699880931099616 0.28796350738289655524 -0.72007435337935721265 0.33562559556376803105 -0.042684140755744733042 -0.70956686097812438074 -0.73261256093541793355 -0.64179038537834087741 -0.70635011214118925693 -0.13725784435384774662;-0.71197997842606053354 -0.014721872071662249482 0.55834723099815231073 -0.16389857623787912333 0.43331897324586232667 0.054052318584865630124 0.14221034070397442495 -0.16348329832559999053 -0.41816320890379266029 0.41650072018640382776 -0.36788868129102464399 -0.83351552585954735708 -0.59942775772764167463;0.77267728478793173963 -0.30087195239661529422 -0.33558192648500251298 0.19156750552195839221 -0.018888004697571993129 -0.11530355386559011655 -0.88679868853683507801 0.88959994554010646262 0.15061025381972376058 0.85680989195452994522 0.025667137282381333185 0.42053295794205580727 0.93332142555144126383;-0.9692441441274237679 -0.43261480604372898329 0.89641188681632100188 -0.062818121980367139234 0.6261419804044300319 -0.19763301595110166486 0.90553957889885594579 -0.33025375217040930931 1.0117364476207133528 0.34250441001403558738 -0.27349400670708556849 -0.18820232326190414196 0.074380579607736946324;-0.093005894190406612765 -0.91635851280356228621 -0.46442700349551113703 -0.40439257488819557729 0.52675974876558118165 0.14729034475315244679 -0.76767844306984756031 -0.75408022892087123168 -0.32617336924286954858 0.37793074747133936775 0.38037792081421956114 0.4006880790206040488 -0.13425227694856736727;0.036767266149833721656 -0.58293151562954770295 -0.43754783511676781371 -0.31429723455462205139 0.14552046139598037722 -0.28064009756254737482 -0.86579089318096003058 0.80220853077286957689 0.011795598481148788367 -0.23899121860738953282 -0.35465075899789499925 0.30156080139454222167 0.1951955889803523303];

% Layer 2
b2 = 0.69945270559694439072;
LW2_1 = [-0.48947997484312405492 -0.88771747510871568121 -0.17563424603398819501 -0.33100037931550652104 -0.26119387567304347408 -0.50888030260054395448 0.5458792600930448824 -0.050622679494081099238 0.63802088808344059601 -0.37159355242031105737 -0.39593320288735178725 -0.31573935106312067678 -0.54359664262900730947 -0.32351968710360540227 -0.15304719148959525232];

% Output 1
y1_step1.ymin = -1;
y1_step1.gain = 0.0421052631578947;
y1_step1.xoffset = 0;

% ===== SIMULATION ========

% Dimensions
Q = size(x1,2); % samples

% Input 1
xp1 = mapminmax_apply(x1,x1_step1);

% Layer 1
a1 = tansig_apply(repmat(b1,1,Q) + IW1_1*xp1);

% Layer 2
a2 = repmat(b2,1,Q) + LW2_1*a1;

% Output 1
y1 = mapminmax_reverse(a2,y1_step1);
end

% ===== MODULE FUNCTIONS ========

% Map Minimum and Maximum Input Processing Function
function y = mapminmax_apply(x,settings)
y = bsxfun(@minus,x,settings.xoffset);
y = bsxfun(@times,y,settings.gain);
y = bsxfun(@plus,y,settings.ymin);
end

% Sigmoid Symmetric Transfer Function
function a = tansig_apply(n,~)
a = 2 ./ (1 + exp(-2*n)) - 1;
end

% Map Minimum and Maximum Output Reverse-Processing Function
function x = mapminmax_reverse(y,settings)
x = bsxfun(@minus,y,settings.ymin);
x = bsxfun(@rdivide,x,settings.gain);
x = bsxfun(@plus,x,settings.xoffset);
end
